Language model created by QuickLM on Wed Jun 19 21:33:53 EDT 2019
Copyright (c) 1996-2010 Carnegie Mellon University and Alexander I. Rudnicky

The model is in standard ARPA format, designed by Doug Paul while he was at MITRE.

The code that was used to produce this language model is available in Open Source.
Please visit http://www.speech.cs.cmu.edu/tools/ for more information

The (fixed) discount mass is 0.5. The backoffs are computed using the ratio method.
This model based on a corpus of 8 sentences and 10 words

\data\
ngram 1=10
ngram 2=16
ngram 3=8

\1-grams:
-0.7782 </s> -0.3010
-0.7782 <s> -0.2218
-1.6812 一娃 -0.2218
-1.6812 一瓦 -0.2218
-1.6812 伊娃 -0.2218
-1.6812 伊瓦 -0.2218
-1.6812 医娃 -0.2218
-1.6812 医瓦 -0.2218
-1.6812 衣娃 -0.2218
-1.6812 衣瓦 -0.2218

\2-grams:
-1.2041 <s> 一娃 0.0000
-1.2041 <s> 一瓦 0.0000
-1.2041 <s> 伊娃 0.0000
-1.2041 <s> 伊瓦 0.0000
-1.2041 <s> 医娃 0.0000
-1.2041 <s> 医瓦 0.0000
-1.2041 <s> 衣娃 0.0000
-1.2041 <s> 衣瓦 0.0000
-0.3010 一娃 </s> -0.3010
-0.3010 一瓦 </s> -0.3010
-0.3010 伊娃 </s> -0.3010
-0.3010 伊瓦 </s> -0.3010
-0.3010 医娃 </s> -0.3010
-0.3010 医瓦 </s> -0.3010
-0.3010 衣娃 </s> -0.3010
-0.3010 衣瓦 </s> -0.3010

\3-grams:
-0.3010 <s> 一娃 </s>
-0.3010 <s> 一瓦 </s>
-0.3010 <s> 伊娃 </s>
-0.3010 <s> 伊瓦 </s>
-0.3010 <s> 医娃 </s>
-0.3010 <s> 医瓦 </s>
-0.3010 <s> 衣娃 </s>
-0.3010 <s> 衣瓦 </s>

\end\
